1.051926450458765316e+00
-4.186649660258918715e-01
1.519725765198270295e+00
-4.435677237124462380e+00
-1.692010222793058460e+00
2.725492289748476793e+00
-1.033482066955379253e+00
-3.759302427485309295e-01
1.369588996836235140e+00
-1.978764552443669444e+00
9.851057983559154962e-01
-3.436315724744245514e-01
-1.439592573040985535e+00
1.783224145515216463e+00
-6.461966205768083782e-01
6.948668369175656778e-01
-4.867021634073864789e-02
1.711008199255472206e+00
-1.109630815857991948e+00
-3.073854972188652113e-01
7.394901807768921032e-01
-1.033482066955379253e+00
-5.251458239060385225e+00
5.436013037035948514e+00
-1.838953175208857260e+00
-2.252650795732832556e+00
3.907049172966117645e+00
2.687699847554034349e+00
-2.687699847554213761e+00
-3.044680057048836375e-01
3.044680057049404809e-01
8.261590628384105628e-01
3.972044722480152501e-01
-2.188670872740861029e-01
6.319729232021735754e-01
6.547517122579797899e-01
-1.142831891402007471e-01
-9.449655822283231643e-01
-1.231972311903849260e+00
-2.178934630824207019e+00
-1.958601236779777821e-02
1.845639950574923915e+00
2.409365666186769062e-01
1.119441259982725256e-01
-2.536358178435120792e-01
-9.599326321433423459e-01
-1.531625700080178731e+00
1.595992463132427375e+00
1.083456033570474375e+00
6.574565336411897221e-02
2.799965671143204382e+00
-8.412973752118162452e-01
3.776288820906614774e-01
-1.544854859670088842e+00
-5.389391705609245520e-01
-1.364318517318181989e+00
3.210970762135740841e+00
-1.957723607575280411e+00
1.596381352992337632e+00
-1.223451785730645724e+00
4.369422848727236186e+00
8.303556768813322719e-01
-3.424874768433169514e+00
-2.707411292236203249e+00
7.679662175438899396e-01
-9.649508950567486920e-02
5.020695944876756300e-01
2.574014238080941652e-01
6.107000963118913717e-01
1.053483317448247192e+00
-2.050294797235331146e+00
2.566322173954915797e-02
-6.426065508383036473e-01
2.656774966831907392e-01
-2.754187476773548582e-01
3.997695925651774118e-01
5.155307436831675361e-01
1.093976127177812785e+00
-8.134969764816446514e-02
1.926164033649094165e+00
-1.535969552856142784e+00
5.919599033933771182e-01
-1.166269416250626634e+00
-1.743811733713648948e+00
1.018914263295180866e+00
7.187526690112324701e-01
-1.802335857154693244e+00
-1.133538040335242414e-01
1.780227288817011200e-01
2.180833383884474230e+00
2.013164172920591355e+00
2.101151886311196648e-01
-6.146800572931070406e-01
-3.789432688143152816e+00
-2.247314188447546712e-02
4.864218041783097135e-02
1.256793586921354233e-01
-4.598453880001400762e-01
3.079969907745363500e-01
-6.118953917702683043e-01
-7.068145596101835793e-01
5.691755565316114485e-02
2.717997527587652229e-01
9.899926429684127172e-01
3.035176723980921309e-01
2.423614055250943977e+00
-4.520231845581612617e-01
-4.208968487537774195e-01
-1.854211694337150718e+00
